ACHIEVE_BY 0.13254015147686005 0.19003508985042572 0.04782042279839516 0.17649561166763306 -0.20150437951087952 0.18664701282978058 -0.0855882465839386 -0.07486151158809662 0.125016987323761 -0.05977393314242363 0.08646082133054733 0.14352667331695557 -0.06947986036539078 -0.06056452915072441 -0.20257779955863953 -0.07037413120269775 0.1651429980993271 -0.11467556655406952 -0.22216428816318512 -0.0839461088180542 0.09766529500484467 -0.08323324471712112 0.14596302807331085 0.1823119968175888 0.09630294889211655 0.09310352057218552 -0.15371935069561005 -0.08427796512842178 0.19727493822574615 -0.1002567857503891 -0.13576044142246246 0.10246863216161728 0.011496131308376789 0.011097216978669167 -0.0981769934296608 -0.0848449096083641 0.04139711707830429 -0.1542540192604065 0.014945728704333305 0.17860350012779236 -0.010956954210996628 -0.054202646017074585 -0.017128191888332367 -0.05562571808695793 0.1752965897321701 0.22343385219573975 -0.1735495626926422 0.08595815300941467 0.13814964890480042 -0.1562698781490326 0.14850053191184998 -0.1342117190361023 -0.05343295633792877 0.10652817785739899 -0.20220887660980225 -0.18924586474895477 -0.20158210396766663 -0.19748900830745697 -0.05641305819153786 -0.14784686267375946 0.06105609983205795 -0.07081570476293564 -0.19963403046131134 -0.1086113452911377 0.043156497180461884 0.029230602085590363 -0.0018723179819062352 -0.10661669075489044 -0.1621042937040329 -0.14055174589157104 0.03032742813229561 -0.08251436054706573 0.0753396525979042 -0.17645592987537384 -0.20332883298397064 -0.03886306285858154 0.09665435552597046 0.07932466268539429 0.10250959545373917 0.06537435948848724 -0.10537926852703094 0.20197390019893646 0.054822228848934174 0.08119599521160126 0.003468315815553069 -0.06986580044031143 -0.18939228355884552 0.021243063732981682 -0.027643058449029922 -0.014583420008420944 -0.101700060069561 0.13334184885025024 -0.05785463750362396 0.1999197006225586 -0.004364276770502329 0.1917968988418579 -0.25753405690193176 0.1654030829668045 -0.13302777707576752 0.11964177340269089
ASSOCIATE_WITH -0.19196660816669464 0.11560793966054916 -0.2255345731973648 -0.22744953632354736 -0.17010879516601562 -0.122611403465271 -0.09326689690351486 0.12645334005355835 -0.07516959309577942 0.08471772819757462 -0.14740756154060364 0.039803650230169296 0.10431169718503952 0.18121442198753357 -0.08583977818489075 0.11518028378486633 0.13836456835269928 0.061987388879060745 -0.06614315509796143 -0.1354599893093109 -0.198645681142807 0.23206576704978943 -0.16169773042201996 -0.16211208701133728 -0.14808550477027893 -0.2099202275276184 -0.1195092499256134 -0.10800780355930328 -0.19479379057884216 0.0986388549208641 0.22140659391880035 0.06352348625659943 -0.15336136519908905 0.06362919509410858 -0.10660768300294876 -0.17658400535583496 -0.10834744572639465 -0.14047494530677795 -0.09327047318220139 -0.1432025134563446 0.161309152841568 0.11944853514432907 -0.0667884573340416 0.24666640162467957 -0.11265931278467178 0.14422611892223358 -0.21036885678768158 0.18677279353141785 0.19097130000591278 0.0598832406103611 0.09874299168586731 0.1979011446237564 -0.06452153623104095 0.10477671027183533 -0.1572265475988388 -0.08719232678413391 0.10637013614177704 -0.13216598331928253 -0.08195067942142487 0.1370439976453781 0.1658954620361328 0.1300460249185562 -0.12110214680433273 0.12536534667015076 0.11292210221290588 -0.1269400268793106 0.19826693832874298 0.09685835242271423 -0.059433501213788986 -0.03818617761135101 0.051757458597421646 -0.03194345906376839 0.2010258436203003 -0.17730361223220825 0.15059758722782135 -0.17363104224205017 0.09013929218053818 -0.10201606899499893 -0.08065462112426758 0.1443561464548111 0.10654672235250473 -0.09599564969539642 0.16000904142856598 -0.14006567001342773 0.18844641745090485 0.06042648106813431 -0.24206295609474182 0.21632763743400574 -0.15711520612239838 0.2331264615058899 0.12328825145959854 -0.18401536345481873 0.18920840322971344 -0.030679496005177498 0.20273727178573608 0.1380724459886551 0.09794358164072037 -0.06143945828080177 0.13016094267368317 0.08609151840209961
ATTRIBUTE -0.13536694645881653 0.27667391300201416 -0.10024034231901169 0.11738375574350357 0.23284123837947845 -0.09848221391439438 -0.1646539568901062 0.14726437628269196 0.10239513963460922 0.11687664687633514 -0.21128079295158386 -0.11153080314397812 0.0802435651421547 -0.10731473565101624 0.18653841316699982 0.20153531432151794 0.13545453548431396 -0.19874876737594604 -0.11576768010854721 -0.18938511610031128 0.16859346628189087 -0.11612677574157715 -0.10888742655515671 -0.1304488182067871 -0.09192333370447159 0.20681904256343842 0.1916881501674652 -0.07525894045829773 -0.08658451586961746 -0.19464313983917236 -0.1406085193157196 0.15771499276161194 -0.23107458651065826 0.12466873228549957 -0.13411593437194824 0.16993370652198792 -0.7010320425033569 -0.1606009304523468 -0.06425535678863525 0.1425877958536148 -0.12240145355463028 -0.22723615169525146 0.2224908322095871 0.1442381888628006 -0.07966767996549606 0.13354577124118805 -0.1343754380941391 -0.14367932081222534 0.12754562497138977 -0.11149348318576813 0.05128788203001022 -0.09695551544427872 -0.22211943566799164 0.12125124037265778 -0.10014428198337555 -0.05530510097742081 0.19359256327152252 -0.14387665688991547 -0.20865081250667572 0.06683193147182465 0.19009749591350555 -0.041291844099760056 -0.08189509063959122 0.1895613968372345 0.03781282529234886 0.16860844194889069 -0.17514784634113312 0.058617327362298965 -0.1647726148366928 -0.09211891144514084 0.08060266822576523 0.1324581354856491 0.09412688761949539 -0.11165103316307068 0.178987517952919 -0.11752243340015411 -0.16510963439941406 -0.26148802042007446 -0.08808170258998871 0.18179361522197723 -0.16013552248477936 -0.17702846229076385 0.19311989843845367 -0.10416828095912933 -0.23329314589500427 -0.06723161786794662 -0.17682823538780212 0.1329151690006256 -0.20095489919185638 0.1628662794828415 -0.06053925305604935 -0.14738932251930237 0.17549340426921844 -0.15176165103912354 -0.052530135959386826 0.05879835784435272 0.08876946568489075 -0.060967817902565 -0.126780703663826 -0.08308733999729156
BASED_ON -0.07099191099405289 -0.12655134499073029 -0.06726741045713425 -0.1540915071964264 -0.11058882623910904 -0.10965007543563843 0.08510108292102814 0.007763992995023727 -0.06301596015691757 0.029832204803824425 0.016903327777981758 -0.023375635966658592 0.2268052101135254 0.007785513997077942 -0.07192564755678177 0.08365926146507263 0.053628068417310715 0.06660117208957672 -0.12705554068088531 -0.15318523347377777 0.19873526692390442 0.006350222043693066 0.14684297144412994 0.012121159583330154 -0.0825582966208458 0.16291272640228271 0.11337616294622421 0.2231619507074356 -0.008043312467634678 -0.013532785698771477 -0.14656352996826172 0.07810094207525253 0.2587123513221741 -0.09335549175739288 -0.07920289039611816 -0.12418467551469803 0.09450075030326843 0.11805211752653122 0.12538598477840424 0.14277657866477966 -0.0058633070439100266 -0.11989735066890717 0.09506992995738983 0.1193569153547287 -0.09558241069316864 0.042510610073804855 0.06734209507703781 0.08185897767543793 0.13398492336273193 -0.08815759420394897 -0.19971154630184174 0.06194291263818741 -0.0451723113656044 -0.0791877880692482 0.1647113412618637 -0.1569957137107849 -0.244773730635643 -0.02146216295659542 0.043273717164993286 -0.1702401489019394 -0.16016210615634918 0.0668300986289978 0.1166313961148262 0.11255166679620743 0.009876403026282787 0.2111654281616211 -0.0702921599149704 0.04138236865401268 -0.15541090071201324 0.1261681169271469 -0.07251197844743729 -0.06819579750299454 0.17934809625148773 0.2554329037666321 -0.1279042810201645 -0.11232460290193558 0.013564622960984707 0.1541779339313507 -0.13558629155158997 0.12496477365493774 0.13295836746692657 0.12375067919492722 0.1338662952184677 0.10882217437028885 -0.04838398098945618 0.1486465334892273 0.005572226829826832 -0.09057118743658066 0.053371530026197433 -0.20429064333438873 -0.1393475979566574 0.2813056707382202 0.17271259427070618 0.14666177332401276 -0.04390164092183113 -0.15003779530525208 -0.1632516235113144 -0.17090275883674622 -0.07117100059986115 -0.2621653378009796
BELONG 0.04667225480079651 -0.0920347273349762 0.11643471568822861 0.12797117233276367 -0.14900082349777222 0.16195307672023773 0.12904635071754456 -0.20434169471263885 -0.10035048425197601 -0.12266436219215393 -0.1863548308610916 -0.024603579193353653 -0.4031761586666107 0.03796694427728653 0.14957520365715027 -0.1360926479101181 0.13188675045967102 0.0795501098036766 0.2610953152179718 0.12523967027664185 -0.045645058155059814 -0.12885229289531708 -0.10441210120916367 -0.07964298874139786 -0.048845767974853516 -0.09861582517623901 0.16624560952186584 0.10696769505739212 -0.019609659910202026 -0.10200238972902298 0.07996849715709686 0.14900457859039307 0.09566690772771835 0.0744389072060585 0.1633448302745819 0.17387045919895172 0.052266865968704224 0.06125914677977562 -0.17797920107841492 -0.1608862429857254 0.10088811814785004 0.08136340230703354 -0.08889978379011154 -0.13245193660259247 0.132959246635437 0.1236899122595787 -0.04708504304289818 0.12987752258777618 0.0853646919131279 -0.08509507775306702 0.0221517626196146 0.04744027182459831 0.10341022908687592 -0.095428965985775 -0.09322076290845871 0.06578322499990463 -0.10583371669054031 0.15373562276363373 0.08071280270814896 0.06353716552257538 -0.13010171055793762 0.304533451795578 -0.1995406150817871 -0.16698043048381805 0.056897714734077454 -0.14312171936035156 -0.12626412510871887 -0.14453266561031342 0.26640844345092773 0.022609755396842957 -0.2079911082983017 -0.07942746579647064 -0.05956587940454483 0.08729293197393417 0.1639806628227234 0.08554740995168686 0.10908527672290802 0.06231816112995148 0.06848544627428055 0.07508186995983124 -0.060309138149023056 0.1302861124277115 -0.13440096378326416 0.10126329958438873 0.012411074712872505 -0.04001627862453461 0.12406687438488007 -0.08678174018859863 0.0815194621682167 0.134017214179039 -0.06821703910827637 0.1622370332479477 -0.13970132172107697 -0.09028858691453934 0.12040060758590698 -0.10187102854251862 -0.13855093717575073 0.07133515179157257 0.060299452394247055 0.16729773581027985
CAUSE -0.020218033343553543 0.19569745659828186 -0.2367735356092453 0.23547418415546417 -0.08360358327627182 -0.014395578764379025 -0.07787957042455673 0.015638569369912148 -0.03286764398217201 -0.031885065138339996 0.022969288751482964 -0.48864325881004333 -0.12057115137577057 -0.03799404203891754 -0.06273412704467773 -0.01576005108654499 0.01954086869955063 -0.015976987779140472 -0.08006932586431503 0.08292030543088913 -0.0335724800825119 -0.01928071863949299 -0.0066000428050756454 -0.02719823643565178 0.10575617849826813 0.01396537572145462 -0.03195330873131752 0.2644002139568329 0.04988684877753258 -0.03783470392227173 0.005537000950425863 -0.10829208046197891 0.014614376239478588 0.03145058453083038 0.10932206362485886 0.1168154701590538 0.006749577820301056 -0.2134675681591034 -0.01355373952537775 0.01167613361030817 -0.04866735637187958 0.017822805792093277 -0.020131627097725868 -0.007882453501224518 0.02271193265914917 -0.042422693222761154 0.06745558977127075 -0.03390424698591232 -0.012102858163416386 0.08784052729606628 0.213237464427948 -0.05220606550574303 0.07565128803253174 -0.17295938730239868 -0.02690739929676056 -0.19142965972423553 0.102515310049057 0.044885337352752686 -0.014421041123569012 0.031486958265304565 -0.08399957418441772 0.026474371552467346 -0.018526289612054825 0.037047144025564194 0.07453465461730957 0.023881884291768074 -0.029769835993647575 -0.31138700246810913 0.4878556430339813 0.06595273315906525 -0.0489390604197979 -0.08804591000080109 0.011714867316186428 0.05483594164252281 0.17096829414367676 0.020906424149870872 0.03957083448767662 0.046693358570337296 0.009839705191552639 -0.024454284459352493 0.0405215360224247 -0.030014880001544952 0.018481126055121422 -0.0930042639374733 0.02109607495367527 0.06883155554533005 -0.07394153624773026 0.03130289167165756 -0.02973928302526474 -0.06095482409000397 0.031237466260790825 0.03536244109272957 0.019841574132442474 -0.041683364659547806 0.009802066721022129 0.026413336396217346 0.04243667796254158 -0.03896642103791237 0.022675029933452606 -0.0242645014077425
CHECK_NEXT 0.0997743159532547 -0.034136466681957245 -0.06618061661720276 -0.025569507852196693 0.030829766765236855 -0.06345709413290024 0.0770614817738533 0.09990941733121872 -0.5003753900527954 -0.01757248304784298 0.07199212163686752 -0.014045262709259987 -0.14126057922840118 -0.1246974915266037 0.026443030685186386 -0.014530543237924576 -0.03696271777153015 -0.07417093217372894 0.10429280996322632 0.08473056554794312 -0.1027464047074318 0.01965678483247757 -0.11926760524511337 -0.362098753452301 0.04525964334607124 0.07897164672613144 0.05254887416958809 0.12041588127613068 0.06235778331756592 -0.1544763594865799 -0.08456707000732422 0.08507775515317917 0.11510210484266281 0.2116720974445343 -0.12099076062440872 -0.021299274638295174 -0.04889525845646858 0.03555730730295181 0.04390998184680939 -0.1165357157588005 0.011383825913071632 0.04974468797445297 0.026396119967103004 0.14581191539764404 -0.08642429858446121 0.05613390728831291 -0.054454255849123 -0.10667693614959717 0.07553040236234665 0.028466898947954178 -0.11422427743673325 0.15337997674942017 -0.037074387073516846 -0.07981254905462265 -0.058230966329574585 -0.10834792256355286 0.03648640587925911 -0.00806276872754097 -0.08444228768348694 -0.02409958280622959 0.0502283051609993 -0.04316931962966919 -0.10834473371505737 0.015887035056948662 0.042103372514247894 0.038491398096084595 -0.0424860380589962 0.17654411494731903 -0.03633708134293556 -0.02957647480070591 -0.034593503922224045 0.14100250601768494 -0.08193956315517426 -0.007527963258326054 -0.026529723778367043 0.14082908630371094 0.1284540593624115 -0.5927537679672241 0.05359456315636635 0.1570405215024948 0.09062490612268448 -0.23557087779045105 -0.04664643108844757 -0.01833523064851761 0.06235237419605255 -0.012345188297331333 0.07204729318618774 0.039290901273489 -0.025909574702382088 -0.2106499820947647 0.11119066178798676 0.013586211018264294 0.046222519129514694 -0.054159220308065414 0.060708969831466675 -0.02339361421763897 0.16389834880828857 0.02430471032857895 0.15298931300640106 -0.11652005463838577
CONFLICT_WITH 0.022268833592534065 -0.11663637310266495 0.0657738447189331 -0.11272895336151123 0.05541332811117172 -0.011569718830287457 -0.002678510034456849 -0.17954671382904053 -0.182334303855896 0.03435825929045677 -0.22377867996692657 0.0668804794549942 -0.0036284644156694412 -0.09101056307554245 0.16222478449344635 0.025372544303536415 0.10079063475131989 0.22498860955238342 0.004195279907435179 -0.0005985593306832016 0.07106250524520874 -0.0013631092151626945 0.07454252243041992 -0.07602908462285995 -0.20123647153377533 0.0195781160145998 -0.25875142216682434 0.06481242179870605 -0.027725061401724815 0.0263594351708889 -0.2588590681552887 0.011791473254561424 0.028084317222237587 -0.12074840813875198 0.041001565754413605 -0.0809209793806076 -0.021106941625475883 -0.050322599709033966 0.15038810670375824 0.05471842736005783 -0.04886654019355774 0.0005724685033783317 0.3497121334075928 -0.0037318530958145857 -0.1364610493183136 -0.002145421225577593 0.2808704078197479 0.04488726332783699 0.006317822728306055 -0.2803289592266083 -0.013160794042050838 -0.0033399632666260004 -0.22087642550468445 -0.2146921008825302 -0.00012384302681311965 0.11517171561717987 0.0011837646597996354 0.05372747778892517 -0.06673512607812881 -0.19103887677192688 -0.042304810136556625 0.00031055230647325516 -0.05079025402665138 0.14869609475135803 -0.08778786659240723 -0.1506948173046112 -0.3065650165081024 -0.057562991976737976 0.04594143107533455 0.1316228061914444 -0.1437542885541916 0.00812067836523056 0.12248340994119644 -0.23317161202430725 0.0076134116388857365 -0.05764761194586754 -0.14216282963752747 -0.2370123565196991 -0.01278307382017374 0.05599341168999672 0.006753557827323675 -0.17958064377307892 0.0005699469475075603 0.06434980779886246 -0.2180909663438797 -0.025060150772333145 0.021855933591723442 0.06341012567281723 0.08912425488233566 -0.009059336967766285 -0.003246413776651025 -0.021773038432002068 -0.04826145991683006 0.010136429220438004 -0.008398325182497501 0.1438409686088562 0.18529945611953735 -0.03313728794455528 6.884215690661222e-05 -0.2138725072145462
CONSIST_OF -0.13788646459579468 0.18362100422382355 0.12365701049566269 -0.15132050216197968 0.03403380885720253 -0.030917631462216377 -0.07267600297927856 -0.1683839112520218 0.0009403916774317622 0.1416490375995636 0.09095502644777298 0.06990368664264679 0.036697521805763245 0.11456965655088425 0.011824799701571465 -0.0015177247114479542 0.15076787769794464 0.06812213361263275 0.000142476346809417 -0.2348954975605011 0.1407480090856552 -0.0909302830696106 -0.1551028937101364 -0.0004103354294784367 0.02579212188720703 -0.009348813444375992 0.13418440520763397 -0.1345759630203247 -0.15718773007392883 -0.00012692717427853495 0.1517161726951599 0.0003335118817631155 -0.1519925743341446 0.17761072516441345 -0.10994323343038559 0.00011019405064871535 0.1426328718662262 0.03093317709863186 0.0026286833453923464 0.20705261826515198 0.00035483695683069527 -0.20399323105812073 0.00016144767869263887 0.16865432262420654 -0.00023311746190302074 0.0004991331370547414 -0.14451466500759125 0.14226539433002472 0.10545827448368073 0.11907467991113663 3.86519095627591e-05 0.2603631615638733 0.00010647039744071662 -0.04523678496479988 0.08462296426296234 -0.1910686194896698 -0.1799200028181076 -0.1796177625656128 -0.054885298013687134 -0.1363200545310974 0.26873788237571716 0.2455400973558426 0.2031022608280182 0.17687225341796875 -0.022131403908133507 -0.02927616611123085 0.0012235011672601104 -0.0002050928451353684 0.11357744038105011 -0.07978962361812592 -0.18098929524421692 0.2620745599269867 0.046660155057907104 -0.0027582719922065735 -0.13629989326000214 -0.15334409475326538 -0.1559576690196991 -0.006344230379909277 -0.038592152297496796 0.1672033667564392 -0.19172611832618713 -0.10950812697410583 -0.1284140795469284 -0.0021044996101409197 -0.07758790254592896 -0.0007512333686463535 -0.2247871458530426 -0.04614569619297981 -0.1572893112897873 -0.040789779275655746 -0.23611241579055786 -0.26697561144828796 0.18091417849063873 -0.0007815909339115024 -0.0638921856880188 -0.05934128165245056 -8.765920938458294e-05 -0.06253933161497116 0.0766415148973465 -0.05567961931228638
CORRESPOND_WITH 0.22137068212032318 -0.09835903346538544 0.039395466446876526 0.10676005482673645 0.06035134941339493 -0.20437942445278168 0.07191644608974457 -0.2146395742893219 0.11944761872291565 0.0690978616476059 -0.07549626380205154 0.0703822448849678 0.12990222871303558 -0.24510055780410767 -0.02817659266293049 -0.09061084687709808 0.1096532940864563 -0.12595924735069275 0.1760241836309433 0.11330677568912506 -0.15086838603019714 0.10693030804395676 -0.09235206991434097 0.14734241366386414 0.16070756316184998 -0.07865652441978455 -0.07055382430553436 -0.16578476130962372 -0.08446954190731049 0.2146100252866745 -0.012857627123594284 -0.065313920378685 -0.11649779975414276 -0.10114338994026184 0.07163388282060623 -0.11150875687599182 -0.015608575195074081 0.01718832179903984 -0.1858212798833847 0.15198232233524323 0.045981958508491516 -0.15154723823070526 -0.0072029330767691135 -0.07459554076194763 0.013647647574543953 -0.14655369520187378 -0.04840363562107086 0.17144463956356049 0.06675916910171509 -0.07931742072105408 -0.02949952892959118 -0.034713514149188995 -0.02930654026567936 0.08918767422437668 0.1484057754278183 -0.16802197694778442 -0.15327908098697662 0.18306797742843628 0.06553206592798233 -0.0392320454120636 0.1240939125418663 -0.16258500516414642 0.12746016681194305 -0.1494748890399933 -0.09094057232141495 -0.1912107616662979 -0.03481678292155266 -0.020690489560365677 0.18030327558517456 0.10463695973157883 -0.18442820012569427 -0.17089244723320007 -0.12712575495243073 -0.14095379412174225 0.18247400224208832 -0.11788249760866165 -0.014400910586118698 0.06071110814809799 -0.018100252375006676 0.1581219583749771 -0.06591993570327759 -0.2418329119682312 0.19778847694396973 0.0734299048781395 -0.05856700986623764 0.24156077206134796 -0.04502006620168686 -0.08803682774305344 -0.15075136721134186 0.04783433675765991 -0.00850824173539877 0.05921041965484619 -0.08394710719585419 -0.10446494817733765 -0.11503539234399796 0.23675581812858582 -0.031440798193216324 -0.09099574387073517 0.11719131469726562 0.11625555902719498
DEPEND_ON -0.1473604440689087 -0.1929876208305359 -0.1237570121884346 -0.21697814762592316 -0.19952815771102905 0.0195901058614254 0.0719359964132309 0.19124922156333923 -0.09310150891542435 -0.07611425220966339 0.16586779057979584 -0.011127152480185032 0.21210849285125732 -0.012243563309311867 -0.11822978407144547 0.03705213591456413 0.030771499499678612 -0.22008374333381653 0.04833998903632164 -0.057133354246616364 -0.17909811437129974 0.19530217349529266 0.01605057902634144 0.12394702434539795 0.06868219375610352 -0.1267174780368805 0.21455833315849304 0.21712957322597504 -0.14968064427375793 -0.06375566869974136 -0.02342706173658371 -0.15543067455291748 0.1195564717054367 0.10277343541383743 0.011090978048741817 0.1799415647983551 -0.07875098288059235 0.1327390968799591 -0.047565631568431854 -0.05100369080901146 0.16947484016418457 -0.18951179087162018 -0.08450326323509216 0.10686001181602478 0.11432401835918427 -0.024321196600794792 -0.17849375307559967 -0.021001089364290237 0.07733641564846039 -0.15971043705940247 0.12583789229393005 -0.2204064577817917 -0.21556136012077332 -0.1764012575149536 0.05579078197479248 -0.03200775384902954 -0.12591512501239777 0.01502755843102932 -0.1856040358543396 -0.07091199606657028 0.15822601318359375 -0.16640456020832062 0.05643843859434128 0.18704943358898163 -0.13018536567687988 -0.06481320410966873 0.2256878912448883 0.07133908569812775 -0.030706847086548805 0.15370936691761017 0.09564091265201569 -0.1282147616147995 -0.11710643023252487 -0.08124357461929321 0.03434193506836891 0.1570032238960266 -0.14778076112270355 0.10982111096382141 -0.024800987914204597 0.02182077057659626 0.10645317286252975 -0.049110233783721924 -0.021204814314842224 -0.22665190696716309 0.08944234997034073 0.10896719247102737 -0.04818679764866829 0.11807125061750412 0.18312807381153107 0.19820436835289001 -0.06646902114152908 -0.2169850617647171 0.006755749695003033 -0.19753532111644745 -0.14365626871585846 0.0879223644733429 -0.20708438754081726 0.10765580832958221 -0.09153896570205688 0.04134843870997429
ENTITY_OF -0.05845651403069496 -0.08231393247842789 0.0033452031202614307 0.0026522420812398195 0.06434110552072525 -0.005409112200140953 -0.006859369110316038 0.07718098163604736 -0.07418067753314972 -0.0073838368989527225 0.2343008667230606 0.012822938151657581 0.0054549057967960835 0.03669058904051781 -0.021368345245718956 -0.10387323796749115 -0.00819938350468874 -0.36090797185897827 -0.07835996150970459 -0.010301108472049236 -0.014046626165509224 -0.02414589934051037 -0.01275390014052391 0.029383063316345215 0.015197975561022758 0.003932079300284386 -0.03595525026321411 0.31531283259391785 -0.01408528070896864 -0.06524679809808731 -0.03646408021450043 0.005666777491569519 -0.012069466523826122 -0.0017450450686737895 0.0018828613683581352 -0.002742791548371315 -0.12085928022861481 -0.00847846083343029 -0.00876711681485176 -0.01285124383866787 -0.003942399751394987 0.031712085008621216 0.10512353479862213 0.008441722020506859 -0.01152742002159357 -0.01518309023231268 0.014565319754183292 -0.004215942230075598 -0.22787365317344666 -0.06882848590612411 -0.013017737306654453 0.007708359509706497 -0.004552552476525307 -0.010269297286868095 0.007465419825166464 0.009639482945203781 0.35101842880249023 0.020459193736314774 0.002770802238956094 0.004800451919436455 -0.005421089474111795 -0.005309617146849632 -0.01920212060213089 0.023032501339912415 0.02338315360248089 -0.015937527641654015 -0.007457428611814976 -0.0034958256874233484 0.009533019736409187 0.15451452136039734 -0.15940837562084198 0.0211502518504858 0.014548101462423801 -0.00693869823589921 0.013346413150429726 -0.15788735449314117 0.11093965917825699 0.2825835049152374 -0.0239554475992918 -0.001175173558294773 0.02278059534728527 0.0152504350990057 -0.019312674179673195 -0.0033793244510889053 0.48397982120513916 0.015356702730059624 -0.005504296626895666 0.05691099539399147 0.006660740822553635 0.015021677128970623 0.015658369287848473 0.006833895109593868 0.00940904300659895 0.0036964784376323223 0.11321353912353516 0.02879306674003601 0.03905957192182541 -0.007573653012514114 0.48891183733940125 -0.47598329186439514
EXECUTED_BY -0.0418098121881485 -0.09394847601652145 -0.09015048295259476 -0.1503971964120865 -0.13140134513378143 0.15559536218643188 -0.07627213001251221 -0.10274569690227509 0.010000393725931644 0.013366797007620335 -0.07113222032785416 0.02839764952659607 0.07964085042476654 0.01529703475534916 0.12455762922763824 -0.1196286529302597 0.1547778993844986 0.05923334136605263 -0.08697555959224701 0.021324964240193367 0.020549099892377853 -0.0686798244714737 -0.015506044961512089 0.04508266597986221 0.16950568556785583 0.08962004631757736 -0.0627262070775032 0.13514657318592072 0.10853389650583267 0.0061072963289916515 0.04987981170415878 -0.10899381339550018 0.082867830991745 0.07380608469247818 0.15657027065753937 -0.0963643416762352 0.2010398954153061 0.14001981914043427 0.08318565785884857 -0.14101621508598328 -0.1625770777463913 0.16917097568511963 -0.09508426487445831 -0.14253143966197968 0.018737228587269783 -0.16090768575668335 -0.10028897970914841 0.1478257030248642 -0.139935702085495 0.013970425352454185 0.065689317882061 -0.04863251745700836 0.13131844997406006 -0.1404896229505539 0.041093818843364716 -0.10389697551727295 -0.25049012899398804 -0.03933969885110855 0.19655103981494904 0.049509305506944656 -0.29881593585014343 -0.08700757473707199 -0.14505819976329803 0.061698708683252335 0.13472627103328705 -0.1393665224313736 -0.05155840516090393 0.16962921619415283 0.03431481122970581 0.1290132999420166 0.04231839254498482 0.15987028181552887 0.13365082442760468 0.04746967554092407 -0.1798863708972931 -0.12146785110235214 -0.09838557988405228 0.11242327839136124 -0.0758022889494896 -0.11635906249284744 0.06233150139451027 0.19643445312976837 -0.08419210463762283 0.03484697639942169 -0.1175437942147255 -0.034880511462688446 0.16167153418064117 -0.018587496131658554 -0.05480469390749931 -0.1764482706785202 0.1194504126906395 0.02734304964542389 -0.2010234147310257 0.19282104074954987 -0.13895241916179657 0.07521102577447891 0.10757395625114441 -0.1462220400571823 0.03779609873890877 -0.24459625780582428
EXECUTED_IF 0.19104941189289093 0.0353357195854187 -0.19937698543071747 0.10893424600362778 -0.1061411127448082 -0.02655845321714878 -0.17693613469600677 -0.09199945628643036 0.003936050459742546 0.05385134741663933 -0.1864057183265686 0.19098031520843506 -0.20623715221881866 -0.1483762562274933 -0.1041993498802185 0.002415949013084173 0.15588471293449402 -0.03259577229619026 0.20396989583969116 0.17459706962108612 0.12981826066970825 -0.054507169872522354 0.11736315488815308 -0.2129209339618683 -0.19441427290439606 0.1663704216480255 0.19293072819709778 -0.18340645730495453 -0.09188731759786606 -0.009169043973088264 -0.007137048523873091 0.20500917732715607 0.050523530691862106 0.05560911074280739 0.06936319172382355 -0.04372278228402138 0.1940624862909317 0.15973319113254547 -0.190818652510643 0.20273655652999878 -0.036223746836185455 -0.04877509921789169 0.001140158623456955 0.106276735663414 -0.007616369053721428 -0.107889823615551 -0.20903868973255157 0.14999604225158691 -0.04094182327389717 0.08257648348808289 0.1230187639594078 -0.032189954072237015 0.1169746145606041 -0.04405999928712845 -0.20322848856449127 -0.13353121280670166 0.04169076681137085 0.1785450577735901 -0.028681956231594086 -0.01730128936469555 -0.1831239014863968 -0.014903396368026733 -0.1293201893568039 0.21310684084892273 -0.06262491643428802 0.0915362611413002 -0.06386987119913101 -0.15268246829509735 0.21216121315956116 0.1165781021118164 -0.1725686490535736 -0.207148477435112 -0.016501493752002716 -0.11284390091896057 0.09335072338581085 -0.19908444583415985 0.1736505776643753 -0.12132538110017776 0.2047579288482666 -0.1121320128440857 0.18278859555721283 0.036538153886795044 0.10810517519712448 -0.055797357112169266 0.08373908698558807 -0.00754346651956439 -0.15973448753356934 -0.009455456398427486 0.0006567243835888803 -0.07847024500370026 -0.1539623886346817 0.16796381771564484 -0.09590375423431396 0.17759057879447937 0.028295224532485008 0.020723357796669006 0.19074589014053345 0.20318220555782318 0.02342664636671543 -0.1855251044034958
FULFILL 0.03460511937737465 0.18758292496204376 0.10947199165821075 0.07971259206533432 0.08063051104545593 -0.13473951816558838 0.06856317818164825 -0.039297815412282944 -0.16596846282482147 -0.14585721492767334 -0.09129655361175537 -0.1381821632385254 0.22233432531356812 -0.17210975289344788 -0.1324312537908554 -0.04559362679719925 -0.15413205325603485 -0.197344571352005 -0.00884347315877676 -0.16610564291477203 0.050069063901901245 0.060462553054094315 0.11259876191616058 -0.014867523685097694 -0.13188253343105316 0.019822871312499046 -0.018363703042268753 0.08837442100048065 -0.018234750255942345 -0.09691334515810013 -0.09470313042402267 -0.033755820244550705 0.09683317691087723 0.013179351575672626 -0.16091494262218475 -0.18682140111923218 -0.09954219311475754 0.18875622749328613 0.028789499774575233 -0.20703274011611938 0.11158538609743118 0.21992650628089905 0.13768133521080017 -0.0024408341851085424 0.17896012961864471 -0.030649300664663315 0.062030524015426636 -0.07249932736158371 0.00404230086132884 -0.1266220510005951 -0.11702752858400345 0.006548329256474972 -0.06575469672679901 -0.20517635345458984 -0.024969425052404404 0.1133003681898117 -0.07501650601625443 0.14102795720100403 -0.09267867356538773 0.1308046579360962 -0.02113953046500683 0.19331896305084229 -0.10429669171571732 -0.18058650195598602 0.05597606673836708 0.04032839089632034 0.1719822883605957 0.15251809358596802 0.17737942934036255 0.049715571105480194 -0.11108511686325073 -0.060913752764463425 -0.02724570594727993 -0.046109702438116074 -0.09714218974113464 -0.16235098242759705 0.18138273060321808 0.06947938352823257 -0.08827909082174301 0.1840669959783554 -0.06642608344554901 0.033485185354948044 -0.07924830913543701 -0.10460172593593597 -0.11379946768283844 0.1653156876564026 0.12271914631128311 0.07114311307668686 0.1439787894487381 -0.024916967377066612 0.16767849028110504 -0.19713743031024933 0.02781708911061287 -0.08839753270149231 -0.06820497661828995 0.0798865482211113 0.008139616809785366 -0.003434406826272607 -0.04881150647997856 -0.12717360258102417
HAS 0.04759533703327179 0.14340518414974213 -0.15534630417823792 -0.13060392439365387 0.12594780325889587 0.13932183384895325 -0.09859701991081238 -0.017254572361707687 -0.10581373423337936 -0.041176240891218185 -0.11114800721406937 0.14496158063411713 -0.14893625676631927 0.10864362120628357 0.1116447001695633 -0.07227279990911484 -0.06182977184653282 -0.13373175263404846 -0.10089530050754547 -0.1075589656829834 0.09538024663925171 -0.10329160839319229 0.12140708416700363 0.10610275715589523 0.13065707683563232 -0.054987832903862 0.1395484209060669 -0.11726345866918564 -0.11883269250392914 -0.13077671825885773 -0.11643301695585251 -0.12522834539413452 0.06274590641260147 -0.1303919106721878 0.06759075075387955 -0.03363478556275368 -0.14493250846862793 -0.10757184773683548 0.1525786817073822 -0.11620841175317764 0.13094699382781982 0.07620344310998917 -0.12899520993232727 0.09471523016691208 0.11825545877218246 -0.10619502514600754 -0.10232847929000854 0.07738989591598511 -0.11459160596132278 -0.11809727549552917 -0.12135395407676697 0.1569610983133316 0.07149483263492584 -0.0656321719288826 0.12970556318759918 0.13882209360599518 0.12741553783416748 -0.08792420476675034 -0.11340135335922241 0.08318138122558594 0.10811740905046463 -0.10334330797195435 -0.10202673077583313 0.151389479637146 -0.133416086435318 0.10247229039669037 0.06241799145936966 0.08871031552553177 -0.12061964720487595 -0.16575820744037628 -0.16023989021778107 -0.11879491806030273 0.10424093902111053 0.15432550013065338 0.073964424431324 -0.13021747767925262 -0.09191404283046722 0.055776502937078476 0.12854433059692383 -0.013665198348462582 0.16161884367465973 -0.10264796763658524 -0.04976196214556694 0.15868647396564484 0.05691396817564964 -0.10614699125289917 0.027939336374402046 -0.13327008485794067 0.08638729155063629 -0.022277748212218285 -0.13503561913967133 0.15542517602443695 0.10267923027276993 0.07387148588895798 0.12356621026992798 -0.1036171019077301 -0.09470413625240326 0.12217919528484344 -0.1476011425256729 0.1355663537979126
HAS_ALARM -0.13596700131893158 -0.048791058361530304 -0.17399364709854126 0.09595368802547455 0.1878921091556549 0.0377715528011322 -0.16607095301151276 -0.01606571115553379 -0.05565130338072777 0.1974373310804367 -0.044945474714040756 -0.12458433955907822 -0.10021916776895523 0.021472236141562462 0.06477034837007523 0.056060902774333954 0.021670956164598465 -0.1834515631198883 0.11249293386936188 0.10039038211107254 0.045236002653837204 -0.012509310618042946 -0.029922693967819214 -0.31215405464172363 -0.07101049274206161 -0.06012995168566704 -0.03780973330140114 0.07319378852844238 -0.07302480190992355 -0.0819421261548996 0.006379377096891403 -0.02564191445708275 0.1381092071533203 -0.08597098290920258 0.09078938513994217 -0.003082658862695098 -0.1389702409505844 -0.16392728686332703 0.23358024656772614 0.13216285407543182 0.1046537533402443 -0.2535354495048523 0.06567176431417465 -0.0802871510386467 -0.20304842293262482 -0.005489444360136986 -0.12100539356470108 -0.14238831400871277 -0.10570321977138519 0.20000232756137848 -0.05986815690994263 -0.1468721479177475 -0.1117926761507988 0.057989951223134995 0.08296656608581543 -0.028283922001719475 0.07345996052026749 -0.189243882894516 -0.17984075844287872 0.11452102661132812 0.08997943252325058 0.11264796555042267 0.10636858642101288 0.0954231321811676 0.022586967796087265 -0.12262006849050522 -0.10711198300123215 0.07216882705688477 -0.22829730808734894 -0.10725951939821243 0.09672489762306213 -0.08252781629562378 -0.10175736993551254 0.11482210457324982 0.15548405051231384 -0.15261369943618774 0.1409730613231659 -0.03535933420062065 0.07983449846506119 0.1272277534008026 -0.017121732234954834 -0.11371484398841858 0.17978490889072418 -0.06706394255161285 0.08824236690998077 -0.12696214020252228 -0.008003270253539085 -0.21850761771202087 0.047499340027570724 0.24470007419586182 -0.056477732956409454 0.17059992253780365 0.2547096312046051 0.0526265911757946 0.27119672298431396 -0.16068848967552185 -0.13943235576152802 0.06101653352379799 0.02491772547364235 -0.004187887068837881
HAS_CHILDMO -0.027490098029375076 0.07505785673856735 -0.06865768879652023 0.08993428945541382 0.09380097687244415 0.04505632445216179 0.20753642916679382 -0.07682883739471436 0.03984946757555008 0.08837569504976273 0.16593199968338013 -0.02706778235733509 -0.11928078532218933 0.07140853255987167 -0.5868594646453857 0.1597135365009308 -0.033235643059015274 -0.05312445014715195 -0.024632098153233528 0.03118664212524891 -0.021072663366794586 0.09278324991464615 0.039918452501297 -0.07269127666950226 0.04987151175737381 -0.1236957460641861 0.1011795625090599 0.10954267531633377 -0.06431639194488525 0.0025897331070154905 -0.17052283883094788 0.10683541744947433 -0.01926397904753685 0.015724336728453636 0.02504916489124298 -0.17173455655574799 -0.1096128523349762 -0.03873041644692421 0.09378115832805634 -0.04472700133919716 0.03878828138113022 -0.009226004593074322 -0.08119353652000427 -0.17328177392482758 -0.061808109283447266 0.044359806925058365 -0.028979677706956863 0.06623900681734085 -0.01263316348195076 -0.03595934808254242 -0.1558191031217575 0.09158726781606674 -0.13605156540870667 -0.061666522175073624 0.025457026436924934 0.18775707483291626 0.05972153693437576 -0.04997256398200989 -0.04492747783660889 -0.49843573570251465 0.06597832590341568 0.10872349888086319 0.13545817136764526 0.05467235669493675 -0.04821639880537987 0.06333538889884949 -0.028819672763347626 -0.12391264736652374 -0.06835849583148956 -0.07823700457811356 -0.11629164963960648 0.031332775950431824 -0.23258362710475922 0.12673251330852509 -0.028720449656248093 -0.08849193900823593 0.06506320834159851 -0.040812741965055466 0.19623082876205444 -0.05212249234318733 0.07669375836849213 -0.045464687049388885 0.07974950224161148 0.09445879608392715 0.023978514596819878 0.11927557736635208 -0.058734554797410965 -0.208127960562706 0.10000298172235489 0.07048159092664719 -0.1335953176021576 0.09714823961257935 0.0547257661819458 0.21895205974578857 0.13012827932834625 -0.080366350710392 0.023457061499357224 0.1405709832906723 -0.07505715638399124 0.17137226462364197
HAS_CONFLICT -0.07452630996704102 -0.01994878053665161 0.13667982816696167 -0.05049603804945946 0.03170999512076378 -0.10147100687026978 0.13862749934196472 0.14730504155158997 -0.08027423918247223 -0.026011861860752106 -0.1595754474401474 -0.005403165239840746 -0.10335077345371246 0.21002385020256042 0.0028979252092540264 0.16935642063617706 -0.1349477469921112 -0.15832050144672394 0.1372472643852234 -0.10878143459558487 0.2296595573425293 -0.15973661839962006 -0.2047758549451828 0.08123667538166046 -0.10484827309846878 -0.1806294023990631 0.17809727787971497 0.21629483997821808 -0.0585293248295784 -0.196620911359787 -0.12147275358438492 0.08671493828296661 0.14381876587867737 0.08922746777534485 -0.02103402465581894 0.07523678988218307 -0.0059201680123806 -0.09251699596643448 0.13251057267189026 -0.08267465978860855 0.02987433597445488 0.13532638549804688 -0.19192048907279968 0.10300324112176895 -0.1535981446504593 0.07580540329217911 -0.17566679418087006 -0.18031448125839233 0.027900876477360725 0.12930773198604584 -0.15194712579250336 0.11670985072851181 0.014184115454554558 -0.06085718423128128 -0.13031594455242157 -0.1182456910610199 -0.008067171089351177 0.1566319316625595 -0.11679956316947937 -0.0925687775015831 -0.08705072849988937 0.0894177258014679 -0.1703076958656311 -0.04674617573618889 -0.10460202395915985 -0.13746817409992218 0.1781018078327179 -0.015381393022835255 -0.15210379660129547 0.10341944545507431 -0.09943883866071701 0.21423032879829407 0.2246415764093399 0.106135793030262 -0.060802627354860306 0.04501264914870262 -0.05462569370865822 -0.074947290122509 0.04102328419685364 -0.08696050941944122 -0.05945545807480812 0.21666432917118073 0.134550079703331 -0.03385624289512634 -0.025438779965043068 -0.2516147494316101 -0.08069341629743576 -0.0003799995465669781 -0.07234933227300644 -0.05420929566025734 0.041198380291461945 0.050313591957092285 -0.11895015090703964 0.1840609312057495 0.09639739245176315 -0.04746976122260094 0.10132833570241928 0.1483294814825058 -0.17939691245555878 -0.18746067583560944
HAS_COUNTERSET -0.08498279005289078 0.05971619114279747 -0.01343927439302206 0.07149583846330643 0.0195712111890316 -0.04555970057845116 0.11430642008781433 -0.1509995460510254 0.13530191779136658 0.10338260978460312 -0.08424718677997589 -0.21212689578533173 0.01616206206381321 0.012946652248501778 -0.07465548068284988 0.06618158519268036 0.09346657246351242 -0.05162035673856735 0.00875758659094572 -0.039444439113140106 -0.017327308654785156 -0.007445228286087513 -0.07527759671211243 -0.2956061065196991 -0.1351478546857834 -0.15792089700698853 0.2754933536052704 0.021061191335320473 -0.23962247371673584 0.03716317191720009 -0.03959423303604126 0.16437385976314545 0.05424502119421959 0.042588092386722565 -0.16816909611225128 0.11839716136455536 -0.0018197132740169764 -0.1561318039894104 -0.03190771862864494 -0.07219240814447403 0.09238756448030472 -0.060117948800325394 -0.13311494886875153 -0.06042484939098358 0.013379741460084915 0.21218349039554596 -0.20989812910556793 0.04085678979754448 0.10348746180534363 -0.07530669122934341 -0.1519816368818283 0.20202763378620148 -0.10825058072805405 0.0903405100107193 -0.184798464179039 -0.03410452604293823 -0.012703458778560162 -0.07643350213766098 -0.06442798674106598 -0.1030837818980217 0.10744306445121765 0.1634330302476883 -0.08959805220365524 -0.08755955100059509 -0.0008172400412149727 0.0377829410135746 -0.0034907376393675804 0.050404053181409836 -0.043139077723026276 0.03711219131946564 -0.13252797722816467 -0.02524515986442566 -0.09168734401464462 -0.03597638010978699 0.1448715329170227 -0.052364740520715714 0.21271249651908875 -0.010219425894320011 0.10030272603034973 0.20709402859210968 -0.1033034399151802 -0.1517682522535324 -0.02303912304341793 0.010619312524795532 0.0312193650752306 -0.21998292207717896 -0.19557572901248932 -0.08995172381401062 0.004023303277790546 0.20659756660461426 -0.24034427106380463 -0.07306209206581116 0.13502228260040283 0.023996248841285706 0.2766410708427429 0.020643135532736778 -0.16266939043998718 -0.035181719809770584 0.08549286425113678 0.2191803902387619
HAS_DEPENDENCY -0.16131125390529633 0.1473854035139084 0.0332915335893631 0.020092200487852097 -0.14369182288646698 -0.062333013862371445 -0.20831795036792755 -0.027566757053136826 0.13729508221149445 0.1856972724199295 0.0421217642724514 0.08906777203083038 -0.1522625833749771 0.026786133646965027 0.1759806126356125 0.043123092502355576 0.0713220089673996 0.05575040727853775 -0.14198364317417145 -0.09187658131122589 0.09171608090400696 -0.15645381808280945 0.10385143756866455 -0.011317561380565166 -0.18609870970249176 -0.06300986558198929 0.09466253966093063 -0.07458166778087616 -0.20427808165550232 -0.12317817658185959 -0.17764471471309662 0.03587090224027634 0.18623337149620056 0.17687192559242249 0.08168342709541321 -0.02680044248700142 -0.058237869292497635 0.08218437433242798 0.1152007132768631 -0.21873022615909576 -0.06526466459035873 -0.17057932913303375 -0.1831117868423462 -0.014392510056495667 -0.015029903501272202 0.13390251994132996 0.16960354149341583 0.10379347950220108 -0.017819875851273537 0.03846418112516403 0.11901774257421494 -0.09862112998962402 -0.1900438815355301 -0.12577497959136963 0.16098849475383759 -0.1747955083847046 -0.17969337105751038 0.04640735685825348 -0.20514069497585297 -0.1781158447265625 0.1619647592306137 -0.19199198484420776 -0.2028859555721283 0.005665515549480915 -0.04865851625800133 -0.034492842853069305 -0.002435521222651005 -0.16820620000362396 -0.050220947712659836 0.08196722716093063 -0.1377890557050705 0.01121238712221384 0.02226862870156765 -0.08633814752101898 0.06797224283218384 0.17861364781856537 -0.19200333952903748 0.06919341534376144 0.1464865654706955 -0.005929803010076284 0.06699258834123611 -0.2113475650548935 -0.009709459729492664 0.04971364513039589 0.13304215669631958 0.06996079534292221 -0.18896181881427765 0.1467958241701126 -0.15760770440101624 0.013827767223119736 0.168539360165596 -0.05591187998652458 -0.043327949941158295 0.03547300025820732 0.06282401829957962 -0.2331208884716034 0.1157335415482521 0.03439442068338394 0.19246047735214233 0.05729067325592041
HAS_IMPACT -0.17542023956775665 0.19193299114704132 -0.0323789045214653 -0.1567845344543457 0.16102883219718933 0.04387601092457771 -0.13230447471141815 0.007822454907000065 -0.19051745533943176 0.01883113756775856 0.005354985129088163 -0.15027230978012085 0.18305034935474396 -0.030963612720370293 0.172902449965477 0.020479079335927963 0.17178311944007874 0.011533406563103199 0.1343703418970108 0.05886140093207359 -0.08238223940134048 0.2057531774044037 -0.056603431701660156 -0.17298878729343414 0.017506910488009453 -0.11320678144693375 -0.16712471842765808 -0.10049402713775635 0.14185842871665955 0.07035117596387863 -0.23081393539905548 0.12751100957393646 0.16714580357074738 0.22878581285476685 -0.028511058539152145 -0.17351125180721283 -0.13108569383621216 0.1440799981355667 0.09395503997802734 -0.10023149847984314 0.08248189091682434 0.2379416972398758 0.04071309044957161 0.012109547853469849 0.07483892142772675 0.01019154954701662 -0.07374709844589233 -0.12097112089395523 0.10004403442144394 -0.09061539173126221 -0.008494274690747261 -0.09707898646593094 -0.005090505350381136 0.02052629180252552 -0.2456352412700653 -0.029327351599931717 -0.2003818154335022 -0.06318512558937073 -0.13256822526454926 -0.13504718244075775 -0.1017213985323906 -0.06589397042989731 -0.12394150346517563 -0.09941291064023972 -0.05873250588774681 0.07077198475599289 0.049855686724185944 -0.13132403790950775 -0.3099532127380371 0.02128579467535019 0.03089832328259945 -0.12671147286891937 0.08085626363754272 0.11370529979467392 0.07447174191474915 0.07115836441516876 0.15483048558235168 -0.15437591075897217 -0.1284639686346054 -0.11847338080406189 0.07658345997333527 0.1614362895488739 -0.143666073679924 -0.060563914477825165 -0.1302383691072464 -0.16769422590732574 -0.049932751804590225 -0.030413126572966576 -0.18497300148010254 0.11951271444559097 -0.1478462517261505 0.17783388495445251 -0.07312079519033432 0.11450868844985962 0.14407622814178467 -0.05722843110561371 -0.05406637117266655 0.11473648250102997 0.009557494893670082 0.08406784385442734
HAS_OPERATION -0.15312562882900238 0.07616854459047318 0.17930345237255096 -0.0732618123292923 -0.05880574509501457 -0.04431654140353203 0.10122549533843994 0.17157387733459473 0.16655273735523224 -0.1821679323911667 -0.05594717711210251 -0.17275859415531158 0.09047175198793411 -0.06386936455965042 -0.05224969983100891 0.0012968502705916762 -0.017764948308467865 0.026204073801636696 0.09715717285871506 -0.09505278617143631 -0.04873289167881012 -0.02915440872311592 -0.22150789201259613 0.1453021615743637 0.08576297014951706 0.07623858749866486 0.13307754695415497 0.1357284039258957 0.0927029699087143 -0.23527972400188446 0.11481184512376785 -0.054450906813144684 -0.1262034922838211 -0.04093731567263603 -0.17825385928153992 0.16272425651550293 -0.18388280272483826 0.04986678436398506 0.11235067993402481 0.09069978445768356 0.1789783537387848 0.09716493636369705 -0.0930735245347023 0.17086069285869598 -0.1011471226811409 -0.10876893997192383 -0.10747630149126053 -0.16509990394115448 -0.01680099032819271 -0.020419945940375328 -0.012630075216293335 -0.05674998089671135 0.13412345945835114 -0.19712947309017181 -0.09360750764608383 0.17555934190750122 0.09338074177503586 0.05238531902432442 -0.0701574832201004 0.07151863723993301 -0.11999910324811935 -0.10099735856056213 -0.15455836057662964 -0.2402234822511673 -0.07179441303014755 0.15460404753684998 0.054701659828424454 -0.06336593627929688 0.10968862473964691 0.054814547300338745 -0.11274155229330063 0.13362397253513336 0.1122688427567482 0.09438497573137283 -0.07654270529747009 0.13016243278980255 0.09482680261135101 0.2331712245941162 -0.14254388213157654 0.010642167180776596 0.21480293571949005 -0.02479242905974388 -0.2555549144744873 0.06773612648248672 -0.04634225741028786 0.1578477919101715 -0.06735989451408386 0.029622705653309822 0.12793664634227753 -0.013733419589698315 -0.007850412279367447 0.020926594734191895 0.03546775504946709 -0.20480726659297943 -0.06824765354394913 0.19938944280147552 0.1358761042356491 0.0453314408659935 0.19082613289356232 -0.038101594895124435
HAS_SUBOPERATION 0.1432720273733139 -0.18660765886306763 0.09200290590524673 -0.039910558611154556 -0.04247025400400162 -0.05779936909675598 -0.1539873331785202 0.10120571404695511 -0.1288333237171173 0.08564863353967667 0.14121119678020477 0.02774103358387947 -0.03769239783287048 -0.1079946756362915 -0.058415737003088 -0.036267682909965515 -0.12427496165037155 0.04258297383785248 -0.10224027931690216 -0.042068012058734894 -0.19695010781288147 0.0036819279193878174 0.1627650260925293 -0.03773346543312073 0.04300054535269737 0.22510504722595215 -0.17275388538837433 0.002305190544575453 -0.08339770138263702 0.06220386177301407 0.0051168231293559074 -0.04788699001073837 0.09762880951166153 0.008062627166509628 -0.0016083946684375405 -0.1791917383670807 0.048470549285411835 -0.07396028935909271 -0.09790193289518356 0.045722365379333496 0.030579887330532074 0.2119883894920349 -0.03903026133775711 0.030489150434732437 0.08114685863256454 0.16282391548156738 -0.008430572226643562 0.03766253590583801 -0.15233710408210754 0.18720091879367828 -0.038796667009592056 -0.007406411226838827 0.030897170305252075 0.0659731924533844 0.2153247743844986 0.2212860882282257 -0.03447645902633667 0.1279524862766266 0.10005343705415726 0.05408656969666481 -0.0722862109541893 0.07222989946603775 0.10505285114049911 -0.1586366444826126 0.060725122690200806 0.019927332177758217 -0.0853903740644455 -0.02847164310514927 0.23386822640895844 0.09099980443716049 -0.02404557168483734 0.07413695007562637 -0.028216445818543434 0.19160683453083038 0.0914359986782074 0.0603356808423996 0.1292784959077835 0.21063074469566345 -0.047334276139736176 0.016035379841923714 0.0922529399394989 0.006162623874843121 -0.01850137859582901 -0.02386288158595562 -0.045002736151218414 -0.15291622281074524 -0.1864788979291916 -0.011775484308600426 0.20522989332675934 -0.0015712386230006814 -0.10317137837409973 0.1784665584564209 0.004453055094927549 -0.06666749715805054 -0.14830748736858368 0.12431711703538895 -0.09887287765741348 -0.01999007537961006 -0.031932298094034195 0.15851904451847076
JUDGE_BY 0.027720123529434204 -0.19901306927204132 0.05611706152558327 0.18489885330200195 0.16790014505386353 -0.05914120748639107 0.14486141502857208 -0.06573614478111267 -0.10909166932106018 0.19353656470775604 0.02996605448424816 -0.00945580005645752 0.04928956553339958 -0.021014800295233727 -0.030631758272647858 -0.12782981991767883 0.14455513656139374 0.17752176523208618 0.15893661975860596 -0.16781620681285858 0.13872654736042023 0.1509040892124176 -0.023375744000077248 0.11285670101642609 -0.1284547746181488 0.05845484510064125 -0.05300462990999222 0.19803425669670105 0.07806240767240524 -0.057450566440820694 -0.15016335248947144 0.04631525278091431 0.005186926573514938 -0.07305121421813965 -0.030265696346759796 0.19008475542068481 0.012519735842943192 0.13866734504699707 -0.19070398807525635 0.07176614552736282 0.21586017310619354 0.013846348039805889 -0.1959589272737503 0.03654559701681137 -0.04506460577249527 -0.17929168045520782 -0.21600596606731415 -0.02476908080279827 -0.008037644438445568 -0.03672155365347862 0.1887219399213791 0.14869758486747742 -0.11241229623556137 0.09568095952272415 -0.12163543701171875 -0.0022726759780198336 -0.14819076657295227 -0.18403908610343933 0.14392712712287903 0.08189180493354797 -0.049580127000808716 0.17035076022148132 -0.1624566912651062 0.01874709501862526 0.19866979122161865 -0.06360922753810883 0.08138162642717361 -0.047009196132421494 -0.17792284488677979 0.08772221207618713 0.12921424210071564 0.0345822237432003 -0.09435641765594482 0.17601953446865082 -0.07841266691684723 0.21362146735191345 0.06362410634756088 0.03766157850623131 0.0968899130821228 -0.02984888292849064 -0.037816405296325684 0.07137279212474823 0.11408363282680511 -0.04512656852602959 0.024531429633498192 0.05984704941511154 -0.0029772650450468063 0.21132440865039825 -0.07247630506753922 -0.011822923086583614 0.026656877249479294 0.05733606964349747 -0.04679916054010391 -0.08122465014457703 -0.04571561515331268 -0.1982794553041458 -0.2197992503643036 -0.21433061361312866 0.0006433187518268824 0.013737526722252369
MATCH -0.1659802794456482 0.20007115602493286 0.07458961755037308 -0.0811116024851799 -0.06990424543619156 0.11187650263309479 0.013046544045209885 0.18431928753852844 -0.18130412697792053 -0.07007481902837753 0.11842069774866104 -0.056681498885154724 0.19239667057991028 0.02938392572104931 0.021136347204446793 -0.08748529851436615 0.1511126011610031 0.11130059510469437 0.15974709391593933 -0.03606013208627701 0.1673547625541687 0.12740837037563324 0.023081013932824135 0.08942289650440216 0.0168420672416687 -0.15946441888809204 -0.0107737360522151 0.028777513653039932 0.19416706264019012 0.06974827498197556 0.15379749238491058 0.18811506032943726 0.14082543551921844 0.092867411673069 0.10376402735710144 -0.1318776160478592 0.07923107594251633 -0.1401069611310959 0.20654389262199402 -0.16708000004291534 0.1018991470336914 0.039408065378665924 0.16651566326618195 -0.06352309882640839 0.16466215252876282 -0.017154980450868607 0.10555541515350342 0.13713255524635315 0.08286529034376144 0.06318565458059311 -0.16756018996238708 -0.17046377062797546 -0.011515442281961441 -0.1421232372522354 -0.07523888349533081 -0.028250694274902344 -0.10013781487941742 -0.21254092454910278 0.11355666071176529 -0.2651689648628235 0.003327341517433524 0.02026660367846489 -0.16722948849201202 0.16715313494205475 -0.1536465883255005 -0.03269432112574577 -0.14562514424324036 -0.194412961602211 -0.26676928997039795 0.16113479435443878 -0.06953615695238113 0.15441477298736572 0.20982588827610016 0.10780054330825806 -0.06965581327676773 -0.1377427875995636 -0.111830934882164 0.0646033063530922 -0.07901467382907867 -0.1930747926235199 0.133896604180336 0.09674765169620514 0.07525292783975601 0.10142243653535843 -0.04580578953027725 -0.21489404141902924 0.19323094189167023 0.02826482243835926 0.018833819776773453 -0.16568180918693542 0.03822344169020653 -0.027510439977049828 -0.016414495185017586 0.11284536868333817 0.20200911164283752 0.084782674908638 0.11122311651706696 0.15597087144851685 0.12276437133550644 0.004431911278516054
MEASURE -0.03771442547440529 0.1909351348876953 -0.11017352342605591 -0.09997060894966125 0.12385521829128265 -0.07804934680461884 0.11157361418008804 0.12633346021175385 0.21520239114761353 -0.008563295938074589 -0.10823759436607361 -0.03519068658351898 0.07454875856637955 -0.1285688430070877 -0.14501795172691345 0.22459177672863007 -0.0622817762196064 -0.1681283414363861 -0.13247829675674438 -0.07857324928045273 -0.13743257522583008 0.21472185850143433 0.11093266308307648 -0.1156936064362526 0.03277021273970604 0.09956763684749603 0.06152769923210144 0.17917348444461823 0.08217598497867584 0.15980085730552673 -0.3069106936454773 0.0009088279330171645 -0.09311410039663315 0.0825967863202095 -0.13761912286281586 0.15017765760421753 -0.15876901149749756 -0.21402226388454437 0.22436991333961487 -0.08212396502494812 -0.0282779298722744 -0.033160656690597534 -0.05805205926299095 0.06861358880996704 0.07579532265663147 0.1897272914648056 0.08383262157440186 -0.2217191904783249 0.0026588637847453356 -0.039372995495796204 -0.10241996496915817 -0.04584221914410591 -0.14491122961044312 0.1444772332906723 -0.06442860513925552 0.09667336195707321 0.16992679238319397 -0.09981517493724823 -0.11263243854045868 -0.17304284870624542 0.13813212513923645 -0.07834087312221527 -0.057974569499492645 -0.016418015584349632 0.019511565566062927 -0.031489502638578415 0.0988086462020874 0.06817913800477982 -0.2769808769226074 0.09751676023006439 0.21943360567092896 -0.12959596514701843 -0.03950369730591774 -0.03812474012374878 0.1943199783563614 -0.0898015946149826 0.19296319782733917 0.09321266412734985 -0.08002221584320068 -0.10006347298622131 -0.09750399738550186 -0.1751636266708374 -0.017337700352072716 -0.1200663149356842 0.1090627983212471 -0.08596718311309814 0.03707954287528992 -0.07900428771972656 0.17548492550849915 0.01921931654214859 -0.07634037733078003 -0.02291342243552208 0.11952841281890869 0.06131940335035324 0.16452018916606903 0.17116092145442963 -0.16605614125728607 -0.07276526093482971 -0.06962660700082779 0.07913509756326675
POSSIBLE_SET -0.07484705001115799 0.3425048589706421 -0.1596141904592514 -0.06184320151805878 -0.10388948768377304 0.12767364084720612 -0.1284940093755722 -0.05993429571390152 -0.15560176968574524 0.07508885860443115 -0.1632649004459381 0.24147051572799683 -0.15337900817394257 0.055263277143239975 0.21896013617515564 0.20878271758556366 0.10022395849227905 -0.1701243668794632 0.11429101228713989 -0.04952926188707352 -0.06674991548061371 0.0653090849518776 0.08412355184555054 -0.16927359998226166 0.06493731588125229 -0.06579901278018951 0.11640923470258713 -0.21665121614933014 0.08061624318361282 -0.2978415787220001 0.04641631245613098 0.24604517221450806 -0.30299410223960876 0.23605157434940338 0.19065551459789276 -0.08463352918624878 -0.27543604373931885 -0.037065424025058746 -0.06421127170324326 -0.10718314349651337 0.12305421382188797 -0.03777014836668968 0.14330293238162994 0.02543024718761444 0.20713548362255096 0.06241414695978165 -0.06030179560184479 0.049953240901231766 0.046574268490076065 0.21669374406337738 0.10468106716871262 0.08051642775535583 -0.0796380490064621 -0.11091796308755875 -0.1250029057264328 0.11825220286846161 0.25192609429359436 -0.24197342991828918 -0.14737209677696228 -0.12268035858869553 0.10207927227020264 0.18795982003211975 -0.195655956864357 -0.05194874480366707 -0.06692317128181458 0.0733228549361229 0.04158054664731026 -0.1340044140815735 0.08584144711494446 -0.1716131716966629 -0.14525313675403595 0.16540828347206116 0.012740266509354115 -0.05168165639042854 0.2494964301586151 -0.21587343513965607 -0.11013643443584442 -0.3321349024772644 0.2036667764186859 0.061749108135700226 0.13671590387821198 0.12008631974458694 0.1324567198753357 -0.22916275262832642 -0.08152931928634644 0.23302648961544037 -0.12895169854164124 0.14152786135673523 -0.10973167419433594 0.15311236679553986 0.1736188530921936 -0.06950276345014572 0.11113116890192032 0.04446548968553543 0.09438367187976837 -0.019457973539829254 0.2059536576271057 0.0790380984544754 -0.14930571615695953 0.16690513491630554
RELATE 0.09244190901517868 0.11145829409360886 -0.06254012137651443 -0.15181002020835876 -0.10323404520750046 -0.1738126128911972 0.04515885189175606 0.14772164821624756 -0.024956118315458298 0.06632823497056961 -0.15475516021251678 0.2562541663646698 0.17176051437854767 -0.10131941735744476 0.09673567861318588 0.053433943539857864 0.13019774854183197 -0.15495017170906067 -0.25409454107284546 -0.03660409525036812 -0.22001691162586212 0.08321863412857056 0.08626794070005417 0.06371979415416718 0.10266951471567154 0.0804811343550682 0.15115049481391907 0.051094185560941696 0.049207814037799835 -0.0559595450758934 -0.11587195843458176 0.1935265213251114 -0.18861040472984314 -0.14148926734924316 -0.12027673423290253 0.0927424281835556 0.01903619058430195 -0.030016591772437096 0.1598062962293625 -0.0896562933921814 -0.14048990607261658 -0.07778774946928024 -0.11443992704153061 -0.04126562923192978 8.646836795378476e-05 0.18783584237098694 0.20284171402454376 -0.05783546343445778 0.1586860716342926 -0.015037905424833298 0.019892750307917595 0.10778148472309113 0.13864538073539734 -0.0523969866335392 0.06472528725862503 -0.18425169587135315 0.07218291610479355 0.029093127697706223 0.0627744272351265 -0.13624848425388336 -0.011164437979459763 -0.057903043925762177 0.17814138531684875 -0.07397522777318954 0.020584646612405777 -0.08689122647047043 -0.15828479826450348 0.11837317049503326 0.06032475829124451 0.11498873680830002 0.14808572828769684 -0.16436654329299927 0.21067467331886292 -0.024027947336435318 -0.02890474535524845 0.03414111211895943 0.11997382342815399 0.13689148426055908 -0.09141489118337631 0.1071484312415123 -0.0716119036078453 -0.10972648859024048 -0.08279967308044434 -0.16410206258296967 -0.12347739934921265 0.0956818237900734 -0.09099376946687698 -0.11306449770927429 0.16177698969841003 -0.08075444400310516 0.1973111778497696 0.19612392783164978 0.147370845079422 0.13943463563919067 -0.18793416023254395 0.15196751058101654 -0.008240084163844585 0.19292739033699036 -0.025818679481744766 -0.13355384767055511
SATISFY -0.1309855580329895 0.16709834337234497 -0.04475352168083191 -0.01597152091562748 -0.16747021675109863 -0.04228579252958298 -0.08385758846998215 -0.10972828418016434 -0.1914627104997635 0.09631187468767166 0.13860847055912018 0.1546102911233902 0.11852197349071503 0.09280848503112793 -0.035561103373765945 -0.11896942555904388 -0.11648095399141312 -0.08917098492383957 -0.020885292440652847 -0.08997710049152374 0.15852035582065582 0.06543943285942078 -0.026268942281603813 -0.09089057892560959 -0.17452269792556763 0.05630847066640854 0.166998490691185 0.16307273507118225 0.2180151790380478 0.07206917554140091 0.05268850177526474 -0.13795225322246552 0.17945675551891327 0.034602824598550797 0.0968305692076683 -0.16757337749004364 -0.0991920456290245 0.06545846164226532 -0.11587560921907425 0.15166231989860535 -0.15979903936386108 0.16076067090034485 -0.1509961485862732 -0.024910710752010345 0.10657989233732224 0.1397596299648285 -0.07541047036647797 0.18744871020317078 0.04674461856484413 -0.025036979466676712 0.08615946769714355 -0.12043922394514084 -0.036402083933353424 -0.026813752949237823 -0.13776613771915436 -0.18216316401958466 0.10812187194824219 0.017819423228502274 0.11119327694177628 -0.13151578605175018 -0.06033888831734657 -0.02288839966058731 -0.22507897019386292 -0.04287515580654144 -0.11725687980651855 0.1484609693288803 0.1723526418209076 0.12435252219438553 0.07143139839172363 -0.0565091148018837 -0.07149143517017365 -0.01114904135465622 -0.15257656574249268 0.058620698750019073 0.13638755679130554 -0.16606274247169495 0.16590756177902222 -0.11954925209283829 0.03253834694623947 -0.1900746375322342 -0.053169265389442444 0.17862337827682495 -0.13042570650577545 -0.041639987379312515 0.023196525871753693 -0.17529164254665375 0.10153518617153168 -0.1536065936088562 -0.07291334867477417 -0.08368692547082901 -0.12245012074708939 -0.2243332415819168 -0.08446519076824188 0.0821881964802742 -0.1815314143896103 -0.09345611929893494 -0.07149992138147354 0.11262121796607971 0.11438582837581635 -0.18040038645267487
SET -0.1438875049352646 0.21416419744491577 -0.1906534880399704 -0.03761632367968559 -0.10739028453826904 0.06437613070011139 -0.08051153272390366 -0.044112835079431534 -0.12565740942955017 0.09046443551778793 -0.18198563158512115 0.15861526131629944 0.11236778646707535 0.11500129848718643 -0.09062080830335617 0.1812559813261032 0.17770233750343323 -0.06159304454922676 -0.22134040296077728 -0.15905526280403137 0.023956678807735443 0.07643313705921173 0.06553000956773758 -0.03829791396856308 0.15786655247211456 0.03722876310348511 0.23895417153835297 0.0656106248497963 -0.018699899315834045 0.16297726333141327 -0.18570758402347565 0.08238904178142548 -0.07627156376838684 -0.09070464968681335 0.015089055523276329 -0.1523687243461609 -0.07456865906715393 0.175484761595726 -0.09763843566179276 -0.1880563497543335 -0.028079461306333542 0.0822572335600853 -0.03544124960899353 -0.11187037080526352 0.0794559195637703 0.15674753487110138 0.007459275424480438 -0.02254575677216053 0.16217072308063507 0.13256165385246277 -0.11435952037572861 0.09909575432538986 -0.02158486098051071 -0.062094468623399734 -0.111252062022686 -0.11362864077091217 -0.053360458463430405 -0.14823150634765625 -0.028998814523220062 -0.23785802721977234 -0.09276732802391052 -0.20090581476688385 0.0679091066122055 0.12797300517559052 -0.00103407958522439 0.13883522152900696 -0.13594044744968414 0.1638651043176651 -0.12003955990076065 0.044305380433797836 -0.1388556808233261 0.02715841680765152 0.09525183588266373 0.07964842021465302 -0.03192654252052307 -0.19041478633880615 -0.14314603805541992 -0.16015101969242096 0.03883866220712662 -0.06977611780166626 -0.06532101333141327 0.07195881009101868 0.2088204175233841 -0.10006313771009445 -0.022365039214491844 -0.06653790920972824 -0.15509817004203796 0.02439768612384796 -0.21889737248420715 -0.10813038796186447 -0.18053360283374786 0.16954673826694489 0.008003231137990952 0.15803055465221405 -0.08889579027891159 -0.08114392310380936 0.03368164598941803 0.21408122777938843 -0.187095046043396 -0.2043839395046234
TRIGGER -0.0398576520383358 -0.23159414529800415 0.08314879983663559 0.09217478334903717 0.1416090428829193 0.07565422356128693 0.06959947943687439 -0.08942536264657974 0.29063382744789124 -0.02163293957710266 -0.17070722579956055 -0.0775117427110672 -0.0760158896446228 0.07753737270832062 -0.09621702879667282 0.10565482825040817 -0.06648507714271545 -0.01083538867533207 -0.10753150284290314 0.05639241635799408 0.04256555438041687 -0.1993628740310669 -0.22573600709438324 0.11430847644805908 -0.03502177819609642 -0.02578035369515419 0.13036565482616425 0.17386046051979065 -0.1609703004360199 -0.2666670083999634 -0.10139508545398712 -0.0638142004609108 0.03614601492881775 0.1311403512954712 0.06323668360710144 -0.09718311578035355 -0.11477300524711609 0.1548057198524475 -0.09372003376483917 0.17855773866176605 0.10292030870914459 0.15320861339569092 -0.10486890375614166 0.2063300460577011 -0.11137748509645462 0.08205898851156235 -0.17708294093608856 -0.2493479698896408 -0.04532571882009506 -0.11827880889177322 0.21774788200855255 0.10898126661777496 0.039179589599370956 0.050052739679813385 0.07692921161651611 0.07527242600917816 0.076181560754776 0.11646972596645355 -0.020426563918590546 0.23822171986103058 -0.09901615977287292 -0.1178712323307991 -0.036401160061359406 0.020112836733460426 0.08560175448656082 0.10611625760793686 0.05924958735704422 0.13129013776779175 0.10653126239776611 -0.10368682444095612 0.034512318670749664 0.07479538023471832 -0.08578439056873322 0.01656978391110897 -0.030018772929906845 0.21275313198566437 0.028496989980340004 0.1595691740512848 -0.10049542039632797 0.16366109251976013 0.16020669043064117 0.13300345838069916 0.03817082569003105 0.027594633400440216 -0.14362099766731262 -0.02680177055299282 -0.1540970504283905 -0.13283056020736694 -0.0761968120932579 0.21161068975925446 0.03905174136161804 0.016349459066987038 -0.044534362852573395 -0.2516525685787201 -0.09357412904500961 -0.18387861549854279 -0.030162353068590164 -0.09072856605052948 -0.16498838365077972 -0.046958573162555695
USE -0.18941634893417358 -0.09373070299625397 -0.050154730677604675 -0.04193304106593132 -0.15079045295715332 -0.13563258945941925 -0.16756805777549744 -0.1982254981994629 0.06265708059072495 -0.13986843824386597 0.16695384681224823 -0.19955655932426453 -0.08600737154483795 0.17014090716838837 -0.1615593433380127 -0.11365507543087006 0.017102358862757683 -0.1416766196489334 -0.06319333612918854 -0.0784987062215805 -0.10589659214019775 0.21256883442401886 0.10154915601015091 -0.20099547505378723 0.12916722893714905 0.17459933459758759 0.01717955246567726 -0.1877875030040741 -0.11831288039684296 -0.153575137257576 -0.16742432117462158 0.0368112213909626 -0.11721457540988922 -0.1939784586429596 -0.17360924184322357 -0.05140196904540062 0.18570226430892944 0.06937496364116669 0.16719470918178558 0.03370942175388336 0.13634906709194183 0.19198933243751526 0.15595978498458862 0.051911190152168274 -0.02465013600885868 -0.21352750062942505 -0.053262386471033096 -0.13704246282577515 0.0393175445497036 -0.03498842567205429 0.08505649864673615 0.18552935123443604 -0.02384093403816223 -0.11313972622156143 0.10635851323604584 -0.13959752023220062 0.020254002884030342 0.0279097743332386 -0.10103559494018555 0.14868614077568054 0.049238719046115875 -0.06997089833021164 0.011491362005472183 -0.17572370171546936 -0.23220106959342957 0.055793050676584244 0.17448608577251434 -0.07285932451486588 -0.03327152505517006 -0.05009525269269943 0.09076821058988571 -0.1441810131072998 -0.166203111410141 0.11005289107561111 0.22165705263614655 0.061461642384529114 -0.2028152048587799 -0.011301456019282341 0.050093308091163635 0.033953841775655746 -0.08097480982542038 0.07232660800218582 0.00992283970117569 -0.15194936096668243 -0.15075017511844635 -0.17982764542102814 0.2162712663412094 0.17164279520511627 -0.1691131293773651 0.15311196446418762 -0.12794053554534912 -0.2168346792459488 -0.10927508771419525 -0.17330554127693176 0.20743705332279205 0.048110052943229675 0.17197053134441376 -0.16319873929023743 0.08591178059577942 0.15174439549446106
